digraph Tree {
node [shape=box] ;
0 [label="SLP <= 0.244\nmse = 0.25\nsamples = 924\nvalue = 0.487"] ;
1 [label="H <= -0.295\nmse = 0.157\nsamples = 496\nvalue = 0.196"] ;
0 -> 1 [labeldistance=2.5, labelangle=45, headlabel="True"] ;
2 [label="V <= -0.592\nmse = 0.234\nsamples = 152\nvalue = 0.375"] ;
1 -> 2 ;
3 [label="TM <= 0.521\nmse = 0.212\nsamples = 23\nvalue = 0.696"] ;
2 -> 3 ;
4 [label="mse = 0.0\nsamples = 3\nvalue = 0.0"] ;
3 -> 4 ;
5 [label="Tm <= 0.645\nmse = 0.16\nsamples = 20\nvalue = 0.8"] ;
3 -> 5 ;
6 [label="T <= 0.52\nmse = 0.133\nsamples = 19\nvalue = 0.842"] ;
5 -> 6 ;
7 [label="TM <= 0.543\nmse = 0.245\nsamples = 7\nvalue = 0.571"] ;
6 -> 7 ;
8 [label="mse = 0.0\nsamples = 3\nvalue = 1.0"] ;
7 -> 8 ;
9 [label="H <= -0.615\nmse = 0.188\nsamples = 4\nvalue = 0.25"] ;
7 -> 9 ;
10 [label="mse = 0.0\nsamples = 1\nvalue = 1.0"] ;
9 -> 10 ;
11 [label="mse = 0.0\nsamples = 3\nvalue = 0.0"] ;
9 -> 11 ;
12 [label="mse = 0.0\nsamples = 12\nvalue = 1.0"] ;
6 -> 12 ;
13 [label="mse = 0.0\nsamples = 1\nvalue = 0.0"] ;
5 -> 13 ;
14 [label="VV <= -0.621\nmse = 0.217\nsamples = 129\nvalue = 0.318"] ;
2 -> 14 ;
15 [label="SLP <= -0.562\nmse = 0.099\nsamples = 9\nvalue = 0.889"] ;
14 -> 15 ;
16 [label="mse = 0.0\nsamples = 1\nvalue = 0.0"] ;
15 -> 16 ;
17 [label="mse = 0.0\nsamples = 8\nvalue = 1.0"] ;
15 -> 17 ;
18 [label="H <= -0.705\nmse = 0.199\nsamples = 120\nvalue = 0.275"] ;
14 -> 18 ;
19 [label="VV <= -0.471\nmse = 0.249\nsamples = 36\nvalue = 0.472"] ;
18 -> 19 ;
20 [label="Tm <= 0.645\nmse = 0.237\nsamples = 26\nvalue = 0.615"] ;
19 -> 20 ;
21 [label="Tm <= 0.202\nmse = 0.09\nsamples = 10\nvalue = 0.9"] ;
20 -> 21 ;
22 [label="mse = 0.0\nsamples = 1\nvalue = 0.0"] ;
21 -> 22 ;
23 [label="mse = 0.0\nsamples = 9\nvalue = 1.0"] ;
21 -> 23 ;
24 [label="TM <= 0.844\nmse = 0.246\nsamples = 16\nvalue = 0.438"] ;
20 -> 24 ;
25 [label="mse = 0.0\nsamples = 6\nvalue = 0.0"] ;
24 -> 25 ;
26 [label="SLP <= -0.614\nmse = 0.21\nsamples = 10\nvalue = 0.7"] ;
24 -> 26 ;
27 [label="VM <= -0.275\nmse = 0.188\nsamples = 4\nvalue = 0.25"] ;
26 -> 27 ;
28 [label="mse = 0.0\nsamples = 3\nvalue = 0.0"] ;
27 -> 28 ;
29 [label="mse = 0.0\nsamples = 1\nvalue = 1.0"] ;
27 -> 29 ;
30 [label="mse = 0.0\nsamples = 6\nvalue = 1.0"] ;
26 -> 30 ;
31 [label="Tm <= 0.232\nmse = 0.09\nsamples = 10\nvalue = 0.1"] ;
19 -> 31 ;
32 [label="mse = 0.0\nsamples = 1\nvalue = 1.0"] ;
31 -> 32 ;
33 [label="mse = 0.0\nsamples = 9\nvalue = 0.0"] ;
31 -> 33 ;
34 [label="V <= -0.333\nmse = 0.154\nsamples = 84\nvalue = 0.19"] ;
18 -> 34 ;
35 [label="VM <= -0.524\nmse = 0.216\nsamples = 38\nvalue = 0.316"] ;
34 -> 35 ;
36 [label="H <= -0.346\nmse = 0.164\nsamples = 29\nvalue = 0.207"] ;
35 -> 36 ;
37 [label="H <= -0.628\nmse = 0.126\nsamples = 27\nvalue = 0.148"] ;
36 -> 37 ;
38 [label="mse = 0.0\nsamples = 9\nvalue = 0.0"] ;
37 -> 38 ;
39 [label="V <= -0.35\nmse = 0.173\nsamples = 18\nvalue = 0.222"] ;
37 -> 39 ;
40 [label="Tm <= 0.346\nmse = 0.145\nsamples = 17\nvalue = 0.176"] ;
39 -> 40 ;
41 [label="mse = 0.0\nsamples = 7\nvalue = 0.0"] ;
40 -> 41 ;
42 [label="SLP <= -0.097\nmse = 0.21\nsamples = 10\nvalue = 0.3"] ;
40 -> 42 ;
43 [label="Tm <= 0.514\nmse = 0.109\nsamples = 8\nvalue = 0.125"] ;
42 -> 43 ;
44 [label="mse = 0.0\nsamples = 1\nvalue = 1.0"] ;
43 -> 44 ;
45 [label="mse = 0.0\nsamples = 7\nvalue = 0.0"] ;
43 -> 45 ;
46 [label="mse = 0.0\nsamples = 2\nvalue = 1.0"] ;
42 -> 46 ;
47 [label="mse = 0.0\nsamples = 1\nvalue = 1.0"] ;
39 -> 47 ;
48 [label="mse = 0.0\nsamples = 2\nvalue = 1.0"] ;
36 -> 48 ;
49 [label="V <= -0.408\nmse = 0.222\nsamples = 9\nvalue = 0.667"] ;
35 -> 49 ;
50 [label="mse = 0.0\nsamples = 2\nvalue = 0.0"] ;
49 -> 50 ;
51 [label="VM <= -0.167\nmse = 0.122\nsamples = 7\nvalue = 0.857"] ;
49 -> 51 ;
52 [label="mse = 0.0\nsamples = 6\nvalue = 1.0"] ;
51 -> 52 ;
53 [label="mse = 0.0\nsamples = 1\nvalue = 0.0"] ;
51 -> 53 ;
54 [label="VV <= -0.563\nmse = 0.079\nsamples = 46\nvalue = 0.087"] ;
34 -> 54 ;
55 [label="VM <= 0.001\nmse = 0.154\nsamples = 21\nvalue = 0.19"] ;
54 -> 55 ;
56 [label="T <= 0.561\nmse = 0.128\nsamples = 20\nvalue = 0.15"] ;
55 -> 56 ;
57 [label="T <= 0.398\nmse = 0.245\nsamples = 7\nvalue = 0.429"] ;
56 -> 57 ;
58 [label="mse = 0.0\nsamples = 3\nvalue = 0.0"] ;
57 -> 58 ;
59 [label="VM <= -0.275\nmse = 0.188\nsamples = 4\nvalue = 0.75"] ;
57 -> 59 ;
60 [label="mse = 0.0\nsamples = 3\nvalue = 1.0"] ;
59 -> 60 ;
61 [label="mse = 0.0\nsamples = 1\nvalue = 0.0"] ;
59 -> 61 ;
62 [label="mse = 0.0\nsamples = 13\nvalue = 0.0"] ;
56 -> 62 ;
63 [label="mse = 0.0\nsamples = 1\nvalue = 1.0"] ;
55 -> 63 ;
64 [label="mse = 0.0\nsamples = 25\nvalue = 0.0"] ;
54 -> 64 ;
65 [label="Tm <= 0.034\nmse = 0.103\nsamples = 344\nvalue = 0.116"] ;
1 -> 65 ;
66 [label="T <= 0.082\nmse = 0.188\nsamples = 8\nvalue = 0.75"] ;
65 -> 66 ;
67 [label="mse = 0.0\nsamples = 6\nvalue = 1.0"] ;
66 -> 67 ;
68 [label="mse = 0.0\nsamples = 2\nvalue = 0.0"] ;
66 -> 68 ;
69 [label="V <= -0.408\nmse = 0.091\nsamples = 336\nvalue = 0.101"] ;
65 -> 69 ;
70 [label="H <= -0.141\nmse = 0.132\nsamples = 204\nvalue = 0.157"] ;
69 -> 70 ;
71 [label="Tm <= 0.483\nmse = 0.23\nsamples = 14\nvalue = 0.643"] ;
70 -> 71 ;
72 [label="mse = 0.0\nsamples = 7\nvalue = 1.0"] ;
71 -> 72 ;
73 [label="SLP <= -0.578\nmse = 0.204\nsamples = 7\nvalue = 0.286"] ;
71 -> 73 ;
74 [label="mse = 0.0\nsamples = 2\nvalue = 1.0"] ;
73 -> 74 ;
75 [label="mse = 0.0\nsamples = 5\nvalue = 0.0"] ;
73 -> 75 ;
76 [label="SLP <= -0.588\nmse = 0.106\nsamples = 190\nvalue = 0.121"] ;
70 -> 76 ;
77 [label="V <= -0.483\nmse = 0.206\nsamples = 31\nvalue = 0.29"] ;
76 -> 77 ;
78 [label="TM <= 0.657\nmse = 0.155\nsamples = 26\nvalue = 0.192"] ;
77 -> 78 ;
79 [label="TM <= 0.259\nmse = 0.113\nsamples = 23\nvalue = 0.13"] ;
78 -> 79 ;
80 [label="mse = 0.0\nsamples = 1\nvalue = 1.0"] ;
79 -> 80 ;
81 [label="VM <= -0.773\nmse = 0.083\nsamples = 22\nvalue = 0.091"] ;
79 -> 81 ;
82 [label="T <= 0.536\nmse = 0.25\nsamples = 2\nvalue = 0.5"] ;
81 -> 82 ;
83 [label="mse = 0.0\nsamples = 1\nvalue = 0.0"] ;
82 -> 83 ;
84 [label="mse = 0.0\nsamples = 1\nvalue = 1.0"] ;
82 -> 84 ;
85 [label="V <= -0.525\nmse = 0.048\nsamples = 20\nvalue = 0.05"] ;
81 -> 85 ;
86 [label="mse = 0.0\nsamples = 15\nvalue = 0.0"] ;
85 -> 86 ;
87 [label="TM <= 0.396\nmse = 0.16\nsamples = 5\nvalue = 0.2"] ;
85 -> 87 ;
88 [label="mse = 0.0\nsamples = 1\nvalue = 1.0"] ;
87 -> 88 ;
89 [label="mse = 0.0\nsamples = 4\nvalue = 0.0"] ;
87 -> 89 ;
90 [label="Tm <= 0.82\nmse = 0.222\nsamples = 3\nvalue = 0.667"] ;
78 -> 90 ;
91 [label="mse = 0.0\nsamples = 2\nvalue = 1.0"] ;
90 -> 91 ;
92 [label="mse = 0.0\nsamples = 1\nvalue = 0.0"] ;
90 -> 92 ;
93 [label="TM <= 0.393\nmse = 0.16\nsamples = 5\nvalue = 0.8"] ;
77 -> 93 ;
94 [label="mse = 0.0\nsamples = 1\nvalue = 0.0"] ;
93 -> 94 ;
95 [label="mse = 0.0\nsamples = 4\nvalue = 1.0"] ;
93 -> 95 ;
96 [label="Tm <= 0.404\nmse = 0.08\nsamples = 159\nvalue = 0.088"] ;
76 -> 96 ;
97 [label="VV <= -0.621\nmse = 0.18\nsamples = 34\nvalue = 0.235"] ;
96 -> 97 ;
98 [label="H <= 0.513\nmse = 0.234\nsamples = 8\nvalue = 0.625"] ;
97 -> 98 ;
99 [label="VM <= -0.55\nmse = 0.139\nsamples = 6\nvalue = 0.833"] ;
98 -> 99 ;
100 [label="mse = 0.0\nsamples = 5\nvalue = 1.0"] ;
99 -> 100 ;
101 [label="mse = 0.0\nsamples = 1\nvalue = 0.0"] ;
99 -> 101 ;
102 [label="mse = 0.0\nsamples = 2\nvalue = 0.0"] ;
98 -> 102 ;
103 [label="Tm <= 0.382\nmse = 0.102\nsamples = 26\nvalue = 0.115"] ;
97 -> 103 ;
104 [label="mse = 0.0\nsamples = 21\nvalue = 0.0"] ;
103 -> 104 ;
105 [label="T <= 0.386\nmse = 0.24\nsamples = 5\nvalue = 0.6"] ;
103 -> 105 ;
106 [label="mse = 0.0\nsamples = 3\nvalue = 1.0"] ;
105 -> 106 ;
107 [label="mse = 0.0\nsamples = 2\nvalue = 0.0"] ;
105 -> 107 ;
108 [label="TM <= 0.49\nmse = 0.046\nsamples = 125\nvalue = 0.048"] ;
96 -> 108 ;
109 [label="T <= 0.539\nmse = 0.01\nsamples = 97\nvalue = 0.01"] ;
108 -> 109 ;
110 [label="mse = 0.0\nsamples = 84\nvalue = 0.0"] ;
109 -> 110 ;
111 [label="TM <= 0.423\nmse = 0.071\nsamples = 13\nvalue = 0.077"] ;
109 -> 111 ;
112 [label="mse = 0.0\nsamples = 1\nvalue = 1.0"] ;
111 -> 112 ;
113 [label="mse = 0.0\nsamples = 12\nvalue = 0.0"] ;
111 -> 113 ;
114 [label="TM <= 0.499\nmse = 0.147\nsamples = 28\nvalue = 0.179"] ;
108 -> 114 ;
115 [label="mse = 0.0\nsamples = 2\nvalue = 1.0"] ;
114 -> 115 ;
116 [label="T <= 0.583\nmse = 0.102\nsamples = 26\nvalue = 0.115"] ;
114 -> 116 ;
117 [label="Tm <= 0.59\nmse = 0.198\nsamples = 11\nvalue = 0.273"] ;
116 -> 117 ;
118 [label="mse = 0.0\nsamples = 5\nvalue = 0.0"] ;
117 -> 118 ;
119 [label="H <= 0.218\nmse = 0.25\nsamples = 6\nvalue = 0.5"] ;
117 -> 119 ;
120 [label="mse = 0.0\nsamples = 3\nvalue = 1.0"] ;
119 -> 120 ;
121 [label="mse = 0.0\nsamples = 3\nvalue = 0.0"] ;
119 -> 121 ;
122 [label="mse = 0.0\nsamples = 15\nvalue = 0.0"] ;
116 -> 122 ;
123 [label="TM <= 0.838\nmse = 0.015\nsamples = 132\nvalue = 0.015"] ;
69 -> 123 ;
124 [label="T <= 0.135\nmse = 0.008\nsamples = 130\nvalue = 0.008"] ;
123 -> 124 ;
125 [label="T <= 0.125\nmse = 0.139\nsamples = 6\nvalue = 0.167"] ;
124 -> 125 ;
126 [label="mse = 0.0\nsamples = 5\nvalue = 0.0"] ;
125 -> 126 ;
127 [label="mse = 0.0\nsamples = 1\nvalue = 1.0"] ;
125 -> 127 ;
128 [label="mse = 0.0\nsamples = 124\nvalue = 0.0"] ;
124 -> 128 ;
129 [label="SLP <= -0.727\nmse = 0.25\nsamples = 2\nvalue = 0.5"] ;
123 -> 129 ;
130 [label="mse = 0.0\nsamples = 1\nvalue = 1.0"] ;
129 -> 130 ;
131 [label="mse = 0.0\nsamples = 1\nvalue = 0.0"] ;
129 -> 131 ;
132 [label="VV <= -0.621\nmse = 0.145\nsamples = 428\nvalue = 0.825"] ;
0 -> 132 [labeldistance=2.5, labelangle=-45, headlabel="False"] ;
133 [label="H <= 0.808\nmse = 0.044\nsamples = 303\nvalue = 0.954"] ;
132 -> 133 ;
134 [label="H <= -0.321\nmse = 0.031\nsamples = 285\nvalue = 0.968"] ;
133 -> 134 ;
135 [label="mse = 0.0\nsamples = 1\nvalue = 0.0"] ;
134 -> 135 ;
136 [label="TM <= -0.841\nmse = 0.027\nsamples = 284\nvalue = 0.972"] ;
134 -> 136 ;
137 [label="mse = 0.0\nsamples = 1\nvalue = 0.0"] ;
136 -> 137 ;
138 [label="Tm <= -0.407\nmse = 0.024\nsamples = 283\nvalue = 0.975"] ;
136 -> 138 ;
139 [label="mse = 0.0\nsamples = 130\nvalue = 1.0"] ;
138 -> 139 ;
140 [label="TM <= -0.131\nmse = 0.044\nsamples = 153\nvalue = 0.954"] ;
138 -> 140 ;
141 [label="VV <= -0.839\nmse = 0.125\nsamples = 34\nvalue = 0.853"] ;
140 -> 141 ;
142 [label="mse = 0.0\nsamples = 19\nvalue = 1.0"] ;
141 -> 142 ;
143 [label="V <= -0.488\nmse = 0.222\nsamples = 15\nvalue = 0.667"] ;
141 -> 143 ;
144 [label="Tm <= -0.376\nmse = 0.204\nsamples = 7\nvalue = 0.286"] ;
143 -> 144 ;
145 [label="mse = 0.0\nsamples = 2\nvalue = 1.0"] ;
144 -> 145 ;
146 [label="mse = 0.0\nsamples = 5\nvalue = 0.0"] ;
144 -> 146 ;
147 [label="mse = 0.0\nsamples = 8\nvalue = 1.0"] ;
143 -> 147 ;
148 [label="Tm <= -0.394\nmse = 0.017\nsamples = 119\nvalue = 0.983"] ;
140 -> 148 ;
149 [label="VV <= -0.759\nmse = 0.222\nsamples = 3\nvalue = 0.667"] ;
148 -> 149 ;
150 [label="mse = 0.0\nsamples = 2\nvalue = 1.0"] ;
149 -> 150 ;
151 [label="mse = 0.0\nsamples = 1\nvalue = 0.0"] ;
149 -> 151 ;
152 [label="SLP <= 0.62\nmse = 0.009\nsamples = 116\nvalue = 0.991"] ;
148 -> 152 ;
153 [label="mse = 0.0\nsamples = 98\nvalue = 1.0"] ;
152 -> 153 ;
154 [label="VV <= -0.701\nmse = 0.052\nsamples = 18\nvalue = 0.944"] ;
152 -> 154 ;
155 [label="mse = 0.0\nsamples = 17\nvalue = 1.0"] ;
154 -> 155 ;
156 [label="mse = 0.0\nsamples = 1\nvalue = 0.0"] ;
154 -> 156 ;
157 [label="VV <= -0.828\nmse = 0.201\nsamples = 18\nvalue = 0.722"] ;
133 -> 157 ;
158 [label="mse = 0.0\nsamples = 12\nvalue = 1.0"] ;
157 -> 158 ;
159 [label="T <= -0.58\nmse = 0.139\nsamples = 6\nvalue = 0.167"] ;
157 -> 159 ;
160 [label="mse = 0.0\nsamples = 1\nvalue = 1.0"] ;
159 -> 160 ;
161 [label="mse = 0.0\nsamples = 5\nvalue = 0.0"] ;
159 -> 161 ;
162 [label="Tm <= -0.349\nmse = 0.25\nsamples = 125\nvalue = 0.512"] ;
132 -> 162 ;
163 [label="H <= 0.282\nmse = 0.096\nsamples = 28\nvalue = 0.893"] ;
162 -> 163 ;
164 [label="Tm <= -0.364\nmse = 0.037\nsamples = 26\nvalue = 0.962"] ;
163 -> 164 ;
165 [label="mse = 0.0\nsamples = 23\nvalue = 1.0"] ;
164 -> 165 ;
166 [label="SLP <= 0.727\nmse = 0.222\nsamples = 3\nvalue = 0.667"] ;
164 -> 166 ;
167 [label="mse = 0.0\nsamples = 2\nvalue = 1.0"] ;
166 -> 167 ;
168 [label="mse = 0.0\nsamples = 1\nvalue = 0.0"] ;
166 -> 168 ;
169 [label="mse = 0.0\nsamples = 2\nvalue = 0.0"] ;
163 -> 169 ;
170 [label="V <= -0.608\nmse = 0.24\nsamples = 97\nvalue = 0.402"] ;
162 -> 170 ;
171 [label="H <= 0.038\nmse = 0.202\nsamples = 32\nvalue = 0.719"] ;
170 -> 171 ;
172 [label="mse = 0.0\nsamples = 13\nvalue = 1.0"] ;
171 -> 172 ;
173 [label="VM <= -0.725\nmse = 0.249\nsamples = 19\nvalue = 0.526"] ;
171 -> 173 ;
174 [label="Tm <= 0.391\nmse = 0.204\nsamples = 14\nvalue = 0.714"] ;
173 -> 174 ;
175 [label="VM <= -0.821\nmse = 0.139\nsamples = 12\nvalue = 0.833"] ;
174 -> 175 ;
176 [label="V <= -0.892\nmse = 0.25\nsamples = 4\nvalue = 0.5"] ;
175 -> 176 ;
177 [label="mse = 0.0\nsamples = 2\nvalue = 1.0"] ;
176 -> 177 ;
178 [label="mse = 0.0\nsamples = 2\nvalue = 0.0"] ;
176 -> 178 ;
179 [label="mse = 0.0\nsamples = 8\nvalue = 1.0"] ;
175 -> 179 ;
180 [label="mse = 0.0\nsamples = 2\nvalue = 0.0"] ;
174 -> 180 ;
181 [label="mse = 0.0\nsamples = 5\nvalue = 0.0"] ;
173 -> 181 ;
182 [label="Tm <= -0.037\nmse = 0.186\nsamples = 65\nvalue = 0.246"] ;
170 -> 182 ;
183 [label="SLP <= 0.334\nmse = 0.238\nsamples = 36\nvalue = 0.389"] ;
182 -> 183 ;
184 [label="mse = 0.0\nsamples = 4\nvalue = 1.0"] ;
183 -> 184 ;
185 [label="TM <= 0.153\nmse = 0.215\nsamples = 32\nvalue = 0.312"] ;
183 -> 185 ;
186 [label="Tm <= -0.196\nmse = 0.196\nsamples = 30\nvalue = 0.267"] ;
185 -> 186 ;
187 [label="T <= -0.207\nmse = 0.249\nsamples = 15\nvalue = 0.467"] ;
186 -> 187 ;
188 [label="SLP <= 0.633\nmse = 0.173\nsamples = 9\nvalue = 0.222"] ;
187 -> 188 ;
189 [label="mse = 0.0\nsamples = 6\nvalue = 0.0"] ;
188 -> 189 ;
190 [label="Tm <= -0.336\nmse = 0.222\nsamples = 3\nvalue = 0.667"] ;
188 -> 190 ;
191 [label="mse = 0.0\nsamples = 1\nvalue = 0.0"] ;
190 -> 191 ;
192 [label="mse = 0.0\nsamples = 2\nvalue = 1.0"] ;
190 -> 192 ;
193 [label="TM <= 0.106\nmse = 0.139\nsamples = 6\nvalue = 0.833"] ;
187 -> 193 ;
194 [label="mse = 0.0\nsamples = 4\nvalue = 1.0"] ;
193 -> 194 ;
195 [label="H <= -0.064\nmse = 0.25\nsamples = 2\nvalue = 0.5"] ;
193 -> 195 ;
196 [label="mse = 0.0\nsamples = 1\nvalue = 1.0"] ;
195 -> 196 ;
197 [label="mse = 0.0\nsamples = 1\nvalue = 0.0"] ;
195 -> 197 ;
198 [label="Tm <= -0.08\nmse = 0.062\nsamples = 15\nvalue = 0.067"] ;
186 -> 198 ;
199 [label="mse = 0.0\nsamples = 12\nvalue = 0.0"] ;
198 -> 199 ;
200 [label="H <= 0.218\nmse = 0.222\nsamples = 3\nvalue = 0.333"] ;
198 -> 200 ;
201 [label="mse = 0.0\nsamples = 2\nvalue = 0.0"] ;
200 -> 201 ;
202 [label="mse = 0.0\nsamples = 1\nvalue = 1.0"] ;
200 -> 202 ;
203 [label="mse = 0.0\nsamples = 2\nvalue = 1.0"] ;
185 -> 203 ;
204 [label="T <= 0.439\nmse = 0.064\nsamples = 29\nvalue = 0.069"] ;
182 -> 204 ;
205 [label="H <= 0.295\nmse = 0.034\nsamples = 28\nvalue = 0.036"] ;
204 -> 205 ;
206 [label="mse = 0.0\nsamples = 24\nvalue = 0.0"] ;
205 -> 206 ;
207 [label="TM <= 0.084\nmse = 0.188\nsamples = 4\nvalue = 0.25"] ;
205 -> 207 ;
208 [label="mse = 0.0\nsamples = 3\nvalue = 0.0"] ;
207 -> 208 ;
209 [label="mse = 0.0\nsamples = 1\nvalue = 1.0"] ;
207 -> 209 ;
210 [label="mse = 0.0\nsamples = 1\nvalue = 1.0"] ;
204 -> 210 ;
}